<?xml version="1.0" encoding="utf-8"?>
<Root>
  <ActivationFunctions>
    <Fn id="0" name="Linear" prob="0.25" />
    <Fn id="1" name="BipolarSigmoid" prob="0.25" />
    <Fn id="2" name="Gaussian" prob="0.25" />
    <Fn id="3" name="Sine" prob="0.25" />
  </ActivationFunctions>
  <Networks>
    <Network id="82" birthGen="10" fitness="10">
      <Nodes>
        <Node type="bias" id="0" fnId="0" />
        <Node type="in" id="1" fnId="0" />
        <Node type="in" id="2" fnId="0" />
        <Node type="out" id="3" fnId="0" />
        <Node type="out" id="4" fnId="0" />
        <Node type="out" id="5" fnId="0" />
        <Node type="out" id="6" fnId="0" />
        <Node type="hid" id="34" fnId="3" />
        <Node type="hid" id="37" fnId="2" />
        <Node type="hid" id="61" fnId="3" />
        <Node type="hid" id="73" fnId="2" />
      </Nodes>
      <Connections>
        <Con id="7" src="0" tgt="3" wght="0.88283750601112843" />
        <Con id="10" src="0" tgt="6" wght="0.20290998988048892" />
        <Con id="15" src="2" tgt="3" wght="0.954804664477706" />
        <Con id="16" src="2" tgt="4" wght="-1.4511689674109221" />
        <Con id="17" src="2" tgt="5" wght="1.9847170133143663" />
        <Con id="18" src="2" tgt="6" wght="0.96761219895627937" />
        <Con id="36" src="34" tgt="6" wght="1.9977329251980078" />
        <Con id="38" src="1" tgt="37" wght="-1.9488539207320179" />
        <Con id="39" src="37" tgt="5" wght="2" />
        <Con id="62" src="1" tgt="61" wght="-0.962053744122386" />
        <Con id="63" src="61" tgt="3" wght="2" />
        <Con id="74" src="1" tgt="73" wght="-2" />
        <Con id="75" src="73" tgt="34" wght="2" />
        <Con id="83" src="0" tgt="37" wght="-2" />
        <Con id="102" src="2" tgt="34" wght="-0.13722438365221024" />
      </Connections>
    </Network>
  </Networks>
</Root>