<?xml version="1.0" encoding="utf-8"?>
<Root>
  <ActivationFunctions>
    <Fn id="0" name="Linear" prob="0.25" />
    <Fn id="1" name="BipolarSigmoid" prob="0.25" />
    <Fn id="2" name="Gaussian" prob="0.25" />
    <Fn id="3" name="Sine" prob="0.25" />
  </ActivationFunctions>
  <Networks>
    <Network id="83" birthGen="10" fitness="0">
      <Nodes>
        <Node type="bias" id="0" fnId="0" />
        <Node type="in" id="1" fnId="0" />
        <Node type="in" id="2" fnId="0" />
        <Node type="out" id="3" fnId="0" />
        <Node type="out" id="4" fnId="0" />
        <Node type="out" id="5" fnId="0" />
        <Node type="out" id="6" fnId="0" />
        <Node type="hid" id="23" fnId="2" />
        <Node type="hid" id="47" fnId="1" />
        <Node type="hid" id="82" fnId="1" />
        <Node type="hid" id="117" fnId="0" />
        <Node type="hid" id="132" fnId="2" />
        <Node type="hid" id="141" fnId="1" />
      </Nodes>
      <Connections>
        <Con id="8" src="0" tgt="4" wght="0.29478674381971359" />
        <Con id="16" src="2" tgt="4" wght="1.6993697881698608" />
        <Con id="48" src="1" tgt="47" wght="-0.86083349257240149" />
        <Con id="83" src="1" tgt="82" wght="1.5942041352391243" />
        <Con id="118" src="23" tgt="117" wght="2" />
        <Con id="119" src="117" tgt="4" wght="2" />
        <Con id="133" src="47" tgt="132" wght="1.99680079355901" />
        <Con id="134" src="132" tgt="5" wght="2" />
        <Con id="142" src="1" tgt="141" wght="-0.53199639702881141" />
        <Con id="143" src="141" tgt="3" wght="2" />
      </Connections>
    </Network>
    <Network id="87" birthGen="11" fitness="0">
      <Nodes>
        <Node type="bias" id="0" fnId="0" />
        <Node type="in" id="1" fnId="0" />
        <Node type="in" id="2" fnId="0" />
        <Node type="out" id="3" fnId="0" />
        <Node type="out" id="4" fnId="0" />
        <Node type="out" id="5" fnId="0" />
        <Node type="out" id="6" fnId="0" />
        <Node type="hid" id="23" fnId="2" />
        <Node type="hid" id="47" fnId="1" />
        <Node type="hid" id="82" fnId="1" />
        <Node type="hid" id="117" fnId="0" />
        <Node type="hid" id="132" fnId="2" />
        <Node type="hid" id="141" fnId="1" />
      </Nodes>
      <Connections>
        <Con id="8" src="0" tgt="4" wght="0.29478674381971359" />
        <Con id="48" src="1" tgt="47" wght="-0.86083349257240149" />
        <Con id="83" src="1" tgt="82" wght="1.5942041352391243" />
        <Con id="118" src="23" tgt="117" wght="2" />
        <Con id="119" src="117" tgt="4" wght="2" />
        <Con id="133" src="47" tgt="132" wght="1.99680079355901" />
        <Con id="134" src="132" tgt="5" wght="2" />
        <Con id="142" src="1" tgt="141" wght="-0.53199639702881141" />
        <Con id="143" src="141" tgt="3" wght="2" />
      </Connections>
    </Network>
    <Network id="88" birthGen="11" fitness="0">
      <Nodes>
        <Node type="bias" id="0" fnId="0" />
        <Node type="in" id="1" fnId="0" />
        <Node type="in" id="2" fnId="0" />
        <Node type="out" id="3" fnId="0" />
        <Node type="out" id="4" fnId="0" />
        <Node type="out" id="5" fnId="0" />
        <Node type="out" id="6" fnId="0" />
        <Node type="hid" id="23" fnId="2" />
        <Node type="hid" id="47" fnId="1" />
        <Node type="hid" id="82" fnId="1" />
        <Node type="hid" id="117" fnId="0" />
        <Node type="hid" id="132" fnId="2" />
        <Node type="hid" id="141" fnId="1" />
        <Node type="hid" id="147" fnId="3" />
      </Nodes>
      <Connections>
        <Con id="16" src="2" tgt="4" wght="1.6993697881698608" />
        <Con id="48" src="1" tgt="47" wght="-0.86083349257240149" />
        <Con id="83" src="1" tgt="82" wght="1.5942041352391243" />
        <Con id="118" src="23" tgt="117" wght="2" />
        <Con id="119" src="117" tgt="4" wght="2" />
        <Con id="133" src="47" tgt="132" wght="1.99680079355901" />
        <Con id="134" src="132" tgt="5" wght="2" />
        <Con id="142" src="1" tgt="141" wght="-0.53199639702881141" />
        <Con id="143" src="141" tgt="3" wght="2" />
        <Con id="148" src="0" tgt="147" wght="0.29478674381971359" />
        <Con id="149" src="147" tgt="4" wght="2" />
      </Connections>
    </Network>
    <Network id="89" birthGen="11" fitness="0">
      <Nodes>
        <Node type="bias" id="0" fnId="0" />
        <Node type="in" id="1" fnId="0" />
        <Node type="in" id="2" fnId="0" />
        <Node type="out" id="3" fnId="0" />
        <Node type="out" id="4" fnId="0" />
        <Node type="out" id="5" fnId="0" />
        <Node type="out" id="6" fnId="0" />
        <Node type="hid" id="23" fnId="2" />
        <Node type="hid" id="47" fnId="1" />
        <Node type="hid" id="82" fnId="1" />
        <Node type="hid" id="117" fnId="0" />
        <Node type="hid" id="132" fnId="2" />
        <Node type="hid" id="141" fnId="1" />
      </Nodes>
      <Connections>
        <Con id="8" src="0" tgt="4" wght="0.29478674381971359" />
        <Con id="16" src="2" tgt="4" wght="1.6993697881698608" />
        <Con id="48" src="1" tgt="47" wght="-0.86083349257240149" />
        <Con id="83" src="1" tgt="82" wght="1.5942041352391243" />
        <Con id="118" src="23" tgt="117" wght="2" />
        <Con id="119" src="117" tgt="4" wght="2" />
        <Con id="133" src="47" tgt="132" wght="2" />
        <Con id="134" src="132" tgt="5" wght="2" />
        <Con id="142" src="1" tgt="141" wght="-0.53199639702881141" />
        <Con id="143" src="141" tgt="3" wght="2" />
      </Connections>
    </Network>
    <Network id="90" birthGen="11" fitness="0">
      <Nodes>
        <Node type="bias" id="0" fnId="0" />
        <Node type="in" id="1" fnId="0" />
        <Node type="in" id="2" fnId="0" />
        <Node type="out" id="3" fnId="0" />
        <Node type="out" id="4" fnId="0" />
        <Node type="out" id="5" fnId="0" />
        <Node type="out" id="6" fnId="0" />
        <Node type="hid" id="23" fnId="2" />
        <Node type="hid" id="47" fnId="1" />
        <Node type="hid" id="82" fnId="1" />
        <Node type="hid" id="117" fnId="0" />
        <Node type="hid" id="132" fnId="2" />
        <Node type="hid" id="141" fnId="1" />
        <Node type="hid" id="150" fnId="1" />
      </Nodes>
      <Connections>
        <Con id="8" src="0" tgt="4" wght="0.29478674381971359" />
        <Con id="16" src="2" tgt="4" wght="1.6993697881698608" />
        <Con id="48" src="1" tgt="47" wght="-0.86083349257240149" />
        <Con id="118" src="23" tgt="117" wght="2" />
        <Con id="119" src="117" tgt="4" wght="2" />
        <Con id="133" src="47" tgt="132" wght="1.99680079355901" />
        <Con id="134" src="132" tgt="5" wght="2" />
        <Con id="142" src="1" tgt="141" wght="-0.53199639702881141" />
        <Con id="143" src="141" tgt="3" wght="2" />
        <Con id="151" src="1" tgt="150" wght="1.5942041352391243" />
        <Con id="152" src="150" tgt="82" wght="2" />
      </Connections>
    </Network>
    <Network id="91" birthGen="11" fitness="0">
      <Nodes>
        <Node type="bias" id="0" fnId="0" />
        <Node type="in" id="1" fnId="0" />
        <Node type="in" id="2" fnId="0" />
        <Node type="out" id="3" fnId="0" />
        <Node type="out" id="4" fnId="0" />
        <Node type="out" id="5" fnId="0" />
        <Node type="out" id="6" fnId="0" />
        <Node type="hid" id="23" fnId="2" />
        <Node type="hid" id="47" fnId="1" />
        <Node type="hid" id="82" fnId="1" />
        <Node type="hid" id="117" fnId="0" />
        <Node type="hid" id="132" fnId="2" />
        <Node type="hid" id="141" fnId="1" />
        <Node type="hid" id="153" fnId="1" />
      </Nodes>
      <Connections>
        <Con id="8" src="0" tgt="4" wght="0.29478674381971359" />
        <Con id="16" src="2" tgt="4" wght="1.6993697881698608" />
        <Con id="48" src="1" tgt="47" wght="-0.86083349257240149" />
        <Con id="83" src="1" tgt="82" wght="1.5942041352391243" />
        <Con id="118" src="23" tgt="117" wght="2" />
        <Con id="119" src="117" tgt="4" wght="2" />
        <Con id="133" src="47" tgt="132" wght="1.99680079355901" />
        <Con id="142" src="1" tgt="141" wght="-0.53199639702881141" />
        <Con id="143" src="141" tgt="3" wght="2" />
        <Con id="154" src="132" tgt="153" wght="2" />
        <Con id="155" src="153" tgt="5" wght="2" />
      </Connections>
    </Network>
    <Network id="92" birthGen="11" fitness="0">
      <Nodes>
        <Node type="bias" id="0" fnId="0" />
        <Node type="in" id="1" fnId="0" />
        <Node type="in" id="2" fnId="0" />
        <Node type="out" id="3" fnId="0" />
        <Node type="out" id="4" fnId="0" />
        <Node type="out" id="5" fnId="0" />
        <Node type="out" id="6" fnId="0" />
        <Node type="hid" id="23" fnId="2" />
        <Node type="hid" id="47" fnId="1" />
        <Node type="hid" id="82" fnId="1" />
        <Node type="hid" id="117" fnId="0" />
        <Node type="hid" id="132" fnId="2" />
        <Node type="hid" id="141" fnId="1" />
        <Node type="hid" id="156" fnId="3" />
      </Nodes>
      <Connections>
        <Con id="8" src="0" tgt="4" wght="0.29478674381971359" />
        <Con id="16" src="2" tgt="4" wght="1.6993697881698608" />
        <Con id="48" src="1" tgt="47" wght="-0.86083349257240149" />
        <Con id="83" src="1" tgt="82" wght="1.5942041352391243" />
        <Con id="118" src="23" tgt="117" wght="2" />
        <Con id="119" src="117" tgt="4" wght="2" />
        <Con id="133" src="47" tgt="132" wght="1.99680079355901" />
        <Con id="134" src="132" tgt="5" wght="2" />
        <Con id="142" src="1" tgt="141" wght="-0.53199639702881141" />
        <Con id="157" src="141" tgt="156" wght="2" />
        <Con id="158" src="156" tgt="3" wght="2" />
      </Connections>
    </Network>
    <Network id="93" birthGen="11" fitness="0">
      <Nodes>
        <Node type="bias" id="0" fnId="0" />
        <Node type="in" id="1" fnId="0" />
        <Node type="in" id="2" fnId="0" />
        <Node type="out" id="3" fnId="0" />
        <Node type="out" id="4" fnId="0" />
        <Node type="out" id="5" fnId="0" />
        <Node type="out" id="6" fnId="0" />
        <Node type="hid" id="23" fnId="2" />
        <Node type="hid" id="47" fnId="1" />
        <Node type="hid" id="82" fnId="1" />
        <Node type="hid" id="117" fnId="0" />
        <Node type="hid" id="132" fnId="2" />
        <Node type="hid" id="141" fnId="1" />
      </Nodes>
      <Connections>
        <Con id="8" src="0" tgt="4" wght="0.29478674381971359" />
        <Con id="16" src="2" tgt="4" wght="1.6993697881698608" />
        <Con id="48" src="1" tgt="47" wght="-0.86083349257240149" />
        <Con id="83" src="1" tgt="82" wght="1.5942041352391243" />
        <Con id="118" src="23" tgt="117" wght="2" />
        <Con id="119" src="117" tgt="4" wght="2" />
        <Con id="133" src="47" tgt="132" wght="1.99680079355901" />
        <Con id="134" src="132" tgt="5" wght="2" />
        <Con id="142" src="1" tgt="141" wght="-0.53199639702881141" />
      </Connections>
    </Network>
    <Network id="94" birthGen="11" fitness="0">
      <Nodes>
        <Node type="bias" id="0" fnId="0" />
        <Node type="in" id="1" fnId="0" />
        <Node type="in" id="2" fnId="0" />
        <Node type="out" id="3" fnId="0" />
        <Node type="out" id="4" fnId="0" />
        <Node type="out" id="5" fnId="0" />
        <Node type="out" id="6" fnId="0" />
        <Node type="hid" id="23" fnId="2" />
        <Node type="hid" id="47" fnId="1" />
        <Node type="hid" id="82" fnId="1" />
        <Node type="hid" id="117" fnId="0" />
        <Node type="hid" id="132" fnId="2" />
        <Node type="hid" id="141" fnId="1" />
        <Node type="hid" id="159" fnId="0" />
      </Nodes>
      <Connections>
        <Con id="8" src="0" tgt="4" wght="0.29478674381971359" />
        <Con id="16" src="2" tgt="4" wght="1.6993697881698608" />
        <Con id="48" src="1" tgt="47" wght="-0.86083349257240149" />
        <Con id="83" src="1" tgt="82" wght="1.5942041352391243" />
        <Con id="118" src="23" tgt="117" wght="2" />
        <Con id="119" src="117" tgt="4" wght="2" />
        <Con id="133" src="47" tgt="132" wght="1.99680079355901" />
        <Con id="134" src="132" tgt="5" wght="2" />
        <Con id="143" src="141" tgt="3" wght="2" />
        <Con id="160" src="1" tgt="159" wght="-0.53199639702881141" />
        <Con id="161" src="159" tgt="141" wght="2" />
      </Connections>
    </Network>
  </Networks>
</Root>