<?xml version="1.0" encoding="utf-8"?>
<Root>
  <ActivationFunctions>
    <Fn id="0" name="Linear" prob="0.25" />
    <Fn id="1" name="BipolarSigmoid" prob="0.25" />
    <Fn id="2" name="Gaussian" prob="0.25" />
    <Fn id="3" name="Sine" prob="0.25" />
  </ActivationFunctions>
  <Networks>
    <Network id="56" birthGen="7" fitness="0">
      <Nodes>
        <Node type="bias" id="0" fnId="0" />
        <Node type="in" id="1" fnId="0" />
        <Node type="in" id="2" fnId="0" />
        <Node type="out" id="3" fnId="0" />
        <Node type="out" id="4" fnId="0" />
        <Node type="out" id="5" fnId="0" />
        <Node type="out" id="6" fnId="0" />
        <Node type="hid" id="19" fnId="0" />
        <Node type="hid" id="28" fnId="3" />
        <Node type="hid" id="65" fnId="2" />
      </Nodes>
      <Connections>
        <Con id="7" src="0" tgt="3" wght="-0.741594398394227" />
        <Con id="10" src="0" tgt="6" wght="0.80916240438818932" />
        <Con id="12" src="1" tgt="4" wght="-1.3447433095425367" />
        <Con id="20" src="1" tgt="19" wght="-1.0313241440506777" />
        <Con id="21" src="19" tgt="6" wght="2" />
        <Con id="29" src="2" tgt="28" wght="-0.36422794663972358" />
        <Con id="66" src="28" tgt="65" wght="2" />
        <Con id="67" src="65" tgt="5" wght="2" />
        <Con id="96" src="6" tgt="3" wght="-0.46440471895039082" />
      </Connections>
    </Network>
    <Network id="63" birthGen="8" fitness="0">
      <Nodes>
        <Node type="bias" id="0" fnId="0" />
        <Node type="in" id="1" fnId="0" />
        <Node type="in" id="2" fnId="0" />
        <Node type="out" id="3" fnId="0" />
        <Node type="out" id="4" fnId="0" />
        <Node type="out" id="5" fnId="0" />
        <Node type="out" id="6" fnId="0" />
        <Node type="hid" id="19" fnId="0" />
        <Node type="hid" id="28" fnId="3" />
        <Node type="hid" id="65" fnId="2" />
      </Nodes>
      <Connections>
        <Con id="7" src="0" tgt="3" wght="-0.741594398394227" />
        <Con id="10" src="0" tgt="6" wght="0.80916240438818932" />
        <Con id="12" src="1" tgt="4" wght="-1.3447433095425367" />
        <Con id="20" src="1" tgt="19" wght="-1.0313241440506777" />
        <Con id="21" src="19" tgt="6" wght="2" />
        <Con id="29" src="2" tgt="28" wght="-0.36422794663972358" />
        <Con id="66" src="28" tgt="65" wght="2" />
        <Con id="67" src="65" tgt="5" wght="2" />
        <Con id="96" src="6" tgt="3" wght="-0.46440471895039082" />
      </Connections>
    </Network>
    <Network id="64" birthGen="8" fitness="0">
      <Nodes>
        <Node type="bias" id="0" fnId="0" />
        <Node type="in" id="1" fnId="0" />
        <Node type="in" id="2" fnId="0" />
        <Node type="out" id="3" fnId="0" />
        <Node type="out" id="4" fnId="0" />
        <Node type="out" id="5" fnId="0" />
        <Node type="out" id="6" fnId="0" />
        <Node type="hid" id="19" fnId="0" />
        <Node type="hid" id="28" fnId="3" />
        <Node type="hid" id="65" fnId="2" />
        <Node type="hid" id="103" fnId="3" />
      </Nodes>
      <Connections>
        <Con id="7" src="0" tgt="3" wght="-0.741594398394227" />
        <Con id="10" src="0" tgt="6" wght="0.80916240438818932" />
        <Con id="20" src="1" tgt="19" wght="-1.0313241440506777" />
        <Con id="21" src="19" tgt="6" wght="2" />
        <Con id="29" src="2" tgt="28" wght="-0.36422794663972358" />
        <Con id="66" src="28" tgt="65" wght="2" />
        <Con id="67" src="65" tgt="5" wght="2" />
        <Con id="96" src="6" tgt="3" wght="-0.46440471895039082" />
        <Con id="104" src="1" tgt="103" wght="-1.3447433095425367" />
        <Con id="105" src="103" tgt="4" wght="2" />
      </Connections>
    </Network>
    <Network id="65" birthGen="8" fitness="0">
      <Nodes>
        <Node type="bias" id="0" fnId="0" />
        <Node type="in" id="1" fnId="0" />
        <Node type="in" id="2" fnId="0" />
        <Node type="out" id="3" fnId="0" />
        <Node type="out" id="4" fnId="0" />
        <Node type="out" id="5" fnId="0" />
        <Node type="out" id="6" fnId="0" />
        <Node type="hid" id="19" fnId="0" />
        <Node type="hid" id="28" fnId="3" />
        <Node type="hid" id="44" fnId="2" />
        <Node type="hid" id="71" fnId="2" />
        <Node type="hid" id="84" fnId="2" />
        <Node type="hid" id="97" fnId="1" />
      </Nodes>
      <Connections>
        <Con id="7" src="0" tgt="3" wght="-1.175305312499404" />
        <Con id="20" src="1" tgt="19" wght="-1.0313241440506777" />
        <Con id="21" src="19" tgt="6" wght="2" />
        <Con id="29" src="2" tgt="28" wght="0.64364294335246086" />
        <Con id="30" src="28" tgt="5" wght="2" />
        <Con id="45" src="1" tgt="44" wght="-1.3447433095425367" />
        <Con id="72" src="44" tgt="71" wght="2" />
        <Con id="85" src="0" tgt="84" wght="0.80916240438818932" />
        <Con id="86" src="84" tgt="6" wght="-0.95497179217636585" />
        <Con id="98" src="71" tgt="97" wght="2" />
        <Con id="99" src="97" tgt="4" wght="2" />
      </Connections>
    </Network>
    <Network id="66" birthGen="8" fitness="0">
      <Nodes>
        <Node type="bias" id="0" fnId="0" />
        <Node type="in" id="1" fnId="0" />
        <Node type="in" id="2" fnId="0" />
        <Node type="out" id="3" fnId="0" />
        <Node type="out" id="4" fnId="0" />
        <Node type="out" id="5" fnId="0" />
        <Node type="out" id="6" fnId="0" />
        <Node type="hid" id="19" fnId="0" />
        <Node type="hid" id="28" fnId="3" />
        <Node type="hid" id="65" fnId="2" />
      </Nodes>
      <Connections>
        <Con id="7" src="0" tgt="3" wght="-0.741594398394227" />
        <Con id="10" src="0" tgt="6" wght="0.80916240438818932" />
        <Con id="12" src="1" tgt="4" wght="-1.3447433095425367" />
        <Con id="20" src="1" tgt="19" wght="-1.0313241440506777" />
        <Con id="21" src="19" tgt="6" wght="2" />
        <Con id="29" src="2" tgt="28" wght="0.64364294335246086" />
        <Con id="66" src="28" tgt="65" wght="2" />
        <Con id="67" src="65" tgt="5" wght="2" />
        <Con id="96" src="6" tgt="3" wght="-0.46440471895039082" />
      </Connections>
    </Network>
    <Network id="67" birthGen="8" fitness="0">
      <Nodes>
        <Node type="bias" id="0" fnId="0" />
        <Node type="in" id="1" fnId="0" />
        <Node type="in" id="2" fnId="0" />
        <Node type="out" id="3" fnId="0" />
        <Node type="out" id="4" fnId="0" />
        <Node type="out" id="5" fnId="0" />
        <Node type="out" id="6" fnId="0" />
        <Node type="hid" id="19" fnId="0" />
        <Node type="hid" id="28" fnId="3" />
        <Node type="hid" id="44" fnId="2" />
        <Node type="hid" id="71" fnId="2" />
        <Node type="hid" id="84" fnId="2" />
        <Node type="hid" id="97" fnId="1" />
        <Node type="hid" id="106" fnId="1" />
      </Nodes>
      <Connections>
        <Con id="7" src="0" tgt="3" wght="-0.741594398394227" />
        <Con id="20" src="1" tgt="19" wght="-1.0313241440506777" />
        <Con id="21" src="19" tgt="6" wght="2" />
        <Con id="30" src="28" tgt="5" wght="2" />
        <Con id="45" src="1" tgt="44" wght="-1.3447433095425367" />
        <Con id="72" src="44" tgt="71" wght="2" />
        <Con id="85" src="0" tgt="84" wght="0.80916240438818932" />
        <Con id="86" src="84" tgt="6" wght="2" />
        <Con id="98" src="71" tgt="97" wght="2" />
        <Con id="99" src="97" tgt="4" wght="2" />
        <Con id="107" src="2" tgt="106" wght="0.64364294335246086" />
        <Con id="108" src="106" tgt="28" wght="2" />
      </Connections>
    </Network>
    <Network id="68" birthGen="8" fitness="0">
      <Nodes>
        <Node type="bias" id="0" fnId="0" />
        <Node type="in" id="1" fnId="0" />
        <Node type="in" id="2" fnId="0" />
        <Node type="out" id="3" fnId="0" />
        <Node type="out" id="4" fnId="0" />
        <Node type="out" id="5" fnId="0" />
        <Node type="out" id="6" fnId="0" />
        <Node type="hid" id="19" fnId="0" />
        <Node type="hid" id="28" fnId="3" />
        <Node type="hid" id="44" fnId="2" />
        <Node type="hid" id="71" fnId="2" />
        <Node type="hid" id="90" fnId="3" />
        <Node type="hid" id="100" fnId="3" />
        <Node type="hid" id="109" fnId="3" />
      </Nodes>
      <Connections>
        <Con id="7" src="0" tgt="3" wght="-0.741594398394227" />
        <Con id="10" src="0" tgt="6" wght="0.80916240438818932" />
        <Con id="21" src="19" tgt="6" wght="2" />
        <Con id="29" src="2" tgt="28" wght="0.64364294335246086" />
        <Con id="45" src="1" tgt="44" wght="-1.3447433095425367" />
        <Con id="72" src="44" tgt="71" wght="2" />
        <Con id="91" src="1" tgt="90" wght="-1.0313241440506777" />
        <Con id="92" src="90" tgt="19" wght="2" />
        <Con id="101" src="71" tgt="100" wght="2" />
        <Con id="102" src="100" tgt="4" wght="2" />
        <Con id="110" src="28" tgt="109" wght="2" />
        <Con id="111" src="109" tgt="5" wght="2" />
      </Connections>
    </Network>
    <Network id="69" birthGen="8" fitness="0">
      <Nodes>
        <Node type="bias" id="0" fnId="0" />
        <Node type="in" id="1" fnId="0" />
        <Node type="in" id="2" fnId="0" />
        <Node type="out" id="3" fnId="0" />
        <Node type="out" id="4" fnId="0" />
        <Node type="out" id="5" fnId="0" />
        <Node type="out" id="6" fnId="0" />
        <Node type="hid" id="19" fnId="0" />
        <Node type="hid" id="28" fnId="3" />
        <Node type="hid" id="44" fnId="2" />
        <Node type="hid" id="71" fnId="2" />
        <Node type="hid" id="90" fnId="3" />
        <Node type="hid" id="100" fnId="3" />
        <Node type="hid" id="112" fnId="0" />
      </Nodes>
      <Connections>
        <Con id="7" src="0" tgt="3" wght="-0.741594398394227" />
        <Con id="21" src="19" tgt="6" wght="2" />
        <Con id="29" src="2" tgt="28" wght="0.64364294335246086" />
        <Con id="30" src="28" tgt="5" wght="2" />
        <Con id="45" src="1" tgt="44" wght="-1.3447433095425367" />
        <Con id="72" src="44" tgt="71" wght="2" />
        <Con id="91" src="1" tgt="90" wght="-1.0313241440506777" />
        <Con id="92" src="90" tgt="19" wght="2" />
        <Con id="101" src="71" tgt="100" wght="2" />
        <Con id="102" src="100" tgt="4" wght="2" />
        <Con id="113" src="0" tgt="112" wght="0.80916240438818932" />
        <Con id="114" src="112" tgt="6" wght="2" />
      </Connections>
    </Network>
    <Network id="70" birthGen="8" fitness="0">
      <Nodes>
        <Node type="bias" id="0" fnId="0" />
        <Node type="in" id="1" fnId="0" />
        <Node type="in" id="2" fnId="0" />
        <Node type="out" id="3" fnId="0" />
        <Node type="out" id="4" fnId="0" />
        <Node type="out" id="5" fnId="0" />
        <Node type="out" id="6" fnId="0" />
        <Node type="hid" id="19" fnId="0" />
        <Node type="hid" id="28" fnId="3" />
        <Node type="hid" id="44" fnId="2" />
        <Node type="hid" id="71" fnId="2" />
        <Node type="hid" id="90" fnId="3" />
        <Node type="hid" id="100" fnId="3" />
      </Nodes>
      <Connections>
        <Con id="7" src="0" tgt="3" wght="-0.741594398394227" />
        <Con id="10" src="0" tgt="6" wght="0.80916240438818932" />
        <Con id="21" src="19" tgt="6" wght="2" />
        <Con id="29" src="2" tgt="28" wght="0.64364294335246086" />
        <Con id="30" src="28" tgt="5" wght="2" />
        <Con id="45" src="1" tgt="44" wght="-1.3447433095425367" />
        <Con id="72" src="44" tgt="71" wght="2" />
        <Con id="91" src="1" tgt="90" wght="-1.0313241440506777" />
        <Con id="92" src="90" tgt="19" wght="2" />
        <Con id="101" src="71" tgt="100" wght="2" />
        <Con id="102" src="100" tgt="4" wght="2" />
      </Connections>
    </Network>
  </Networks>
</Root>