<?xml version="1.0" encoding="utf-8"?>
<Root>
  <ActivationFunctions>
    <Fn id="0" name="Linear" prob="0.25" />
    <Fn id="1" name="BipolarSigmoid" prob="0.25" />
    <Fn id="2" name="Gaussian" prob="0.25" />
    <Fn id="3" name="Sine" prob="0.25" />
  </ActivationFunctions>
  <Networks>
    <Network id="13" birthGen="1" fitness="0">
      <Nodes>
        <Node type="bias" id="0" fnId="0" />
        <Node type="in" id="1" fnId="0" />
        <Node type="in" id="2" fnId="0" />
        <Node type="out" id="3" fnId="0" />
        <Node type="out" id="4" fnId="0" />
        <Node type="out" id="5" fnId="0" />
        <Node type="out" id="6" fnId="0" />
        <Node type="hid" id="19" fnId="3" />
      </Nodes>
      <Connections>
        <Con id="11" src="1" tgt="3" wght="-3.7446741340681911" />
        <Con id="13" src="1" tgt="5" wght="-2.1481011668220162" />
        <Con id="14" src="1" tgt="6" wght="-4.3458694545552135" />
        <Con id="16" src="2" tgt="4" wght="-3.4934200346469879" />
        <Con id="17" src="2" tgt="5" wght="-2.1376957930624485" />
        <Con id="20" src="2" tgt="19" wght="-1.063081044703722" />
        <Con id="21" src="19" tgt="6" wght="5" />
      </Connections>
    </Network>
    <Network id="16" birthGen="2" fitness="0">
      <Nodes>
        <Node type="bias" id="0" fnId="0" />
        <Node type="in" id="1" fnId="0" />
        <Node type="in" id="2" fnId="0" />
        <Node type="out" id="3" fnId="0" />
        <Node type="out" id="4" fnId="0" />
        <Node type="out" id="5" fnId="0" />
        <Node type="out" id="6" fnId="0" />
        <Node type="hid" id="19" fnId="3" />
        <Node type="hid" id="22" fnId="2" />
      </Nodes>
      <Connections>
        <Con id="13" src="1" tgt="5" wght="-2.1481011668220162" />
        <Con id="14" src="1" tgt="6" wght="-4.3458694545552135" />
        <Con id="16" src="2" tgt="4" wght="-3.4934200346469879" />
        <Con id="17" src="2" tgt="5" wght="-2.1376957930624485" />
        <Con id="20" src="2" tgt="19" wght="-1.063081044703722" />
        <Con id="21" src="19" tgt="6" wght="5" />
        <Con id="23" src="1" tgt="22" wght="-3.7446741340681911" />
        <Con id="24" src="22" tgt="3" wght="5" />
      </Connections>
    </Network>
    <Network id="17" birthGen="2" fitness="0">
      <Nodes>
        <Node type="bias" id="0" fnId="0" />
        <Node type="in" id="1" fnId="0" />
        <Node type="in" id="2" fnId="0" />
        <Node type="out" id="3" fnId="0" />
        <Node type="out" id="4" fnId="0" />
        <Node type="out" id="5" fnId="0" />
        <Node type="out" id="6" fnId="0" />
        <Node type="hid" id="19" fnId="3" />
      </Nodes>
      <Connections>
        <Con id="11" src="1" tgt="3" wght="-3.7446741340681911" />
        <Con id="13" src="1" tgt="5" wght="-1.67314274471715" />
        <Con id="14" src="1" tgt="6" wght="-4.3458694545552135" />
        <Con id="16" src="2" tgt="4" wght="-3.4934200346469879" />
        <Con id="17" src="2" tgt="5" wght="-2.1376957930624485" />
        <Con id="20" src="2" tgt="19" wght="-1.063081044703722" />
        <Con id="21" src="19" tgt="6" wght="5" />
      </Connections>
    </Network>
    <Network id="18" birthGen="2" fitness="0">
      <Nodes>
        <Node type="bias" id="0" fnId="0" />
        <Node type="in" id="1" fnId="0" />
        <Node type="in" id="2" fnId="0" />
        <Node type="out" id="3" fnId="0" />
        <Node type="out" id="4" fnId="0" />
        <Node type="out" id="5" fnId="0" />
        <Node type="out" id="6" fnId="0" />
        <Node type="hid" id="19" fnId="3" />
        <Node type="hid" id="25" fnId="3" />
      </Nodes>
      <Connections>
        <Con id="11" src="1" tgt="3" wght="-3.7446741340681911" />
        <Con id="13" src="1" tgt="5" wght="-2.1481011668220162" />
        <Con id="14" src="1" tgt="6" wght="-4.3458694545552135" />
        <Con id="16" src="2" tgt="4" wght="-3.4934200346469879" />
        <Con id="20" src="2" tgt="19" wght="-1.063081044703722" />
        <Con id="21" src="19" tgt="6" wght="5" />
        <Con id="26" src="2" tgt="25" wght="-2.1376957930624485" />
        <Con id="27" src="25" tgt="5" wght="5" />
      </Connections>
    </Network>
    <Network id="19" birthGen="2" fitness="0">
      <Nodes>
        <Node type="bias" id="0" fnId="0" />
        <Node type="in" id="1" fnId="0" />
        <Node type="in" id="2" fnId="0" />
        <Node type="out" id="3" fnId="0" />
        <Node type="out" id="4" fnId="0" />
        <Node type="out" id="5" fnId="0" />
        <Node type="out" id="6" fnId="0" />
        <Node type="hid" id="19" fnId="3" />
      </Nodes>
      <Connections>
        <Con id="11" src="1" tgt="3" wght="-3.7446741340681911" />
        <Con id="13" src="1" tgt="5" wght="-2.149961840326152" />
        <Con id="14" src="1" tgt="6" wght="-4.3458694545552135" />
        <Con id="16" src="2" tgt="4" wght="-3.4934200346469879" />
        <Con id="17" src="2" tgt="5" wght="-2.1376957930624485" />
        <Con id="20" src="2" tgt="19" wght="-1.063081044703722" />
        <Con id="21" src="19" tgt="6" wght="5" />
      </Connections>
    </Network>
    <Network id="20" birthGen="2" fitness="0">
      <Nodes>
        <Node type="bias" id="0" fnId="0" />
        <Node type="in" id="1" fnId="0" />
        <Node type="in" id="2" fnId="0" />
        <Node type="out" id="3" fnId="0" />
        <Node type="out" id="4" fnId="0" />
        <Node type="out" id="5" fnId="0" />
        <Node type="out" id="6" fnId="0" />
        <Node type="hid" id="19" fnId="3" />
        <Node type="hid" id="28" fnId="2" />
      </Nodes>
      <Connections>
        <Con id="11" src="1" tgt="3" wght="-3.7446741340681911" />
        <Con id="13" src="1" tgt="5" wght="-2.1481011668220162" />
        <Con id="16" src="2" tgt="4" wght="-3.4934200346469879" />
        <Con id="17" src="2" tgt="5" wght="-2.1376957930624485" />
        <Con id="20" src="2" tgt="19" wght="-1.063081044703722" />
        <Con id="21" src="19" tgt="6" wght="5" />
        <Con id="29" src="1" tgt="28" wght="-4.3458694545552135" />
        <Con id="30" src="28" tgt="6" wght="5" />
      </Connections>
    </Network>
    <Network id="21" birthGen="2" fitness="0">
      <Nodes>
        <Node type="bias" id="0" fnId="0" />
        <Node type="in" id="1" fnId="0" />
        <Node type="in" id="2" fnId="0" />
        <Node type="out" id="3" fnId="0" />
        <Node type="out" id="4" fnId="0" />
        <Node type="out" id="5" fnId="0" />
        <Node type="out" id="6" fnId="0" />
        <Node type="hid" id="19" fnId="3" />
      </Nodes>
      <Connections>
        <Con id="11" src="1" tgt="3" wght="-3.7446741340681911" />
        <Con id="13" src="1" tgt="5" wght="-2.1481011668220162" />
        <Con id="14" src="1" tgt="6" wght="-4.3458694545552135" />
        <Con id="16" src="2" tgt="4" wght="-3.4934200346469879" />
        <Con id="17" src="2" tgt="5" wght="-2.1376957930624485" />
        <Con id="20" src="2" tgt="19" wght="-1.063081044703722" />
      </Connections>
    </Network>
    <Network id="22" birthGen="2" fitness="0">
      <Nodes>
        <Node type="bias" id="0" fnId="0" />
        <Node type="in" id="1" fnId="0" />
        <Node type="in" id="2" fnId="0" />
        <Node type="out" id="3" fnId="0" />
        <Node type="out" id="4" fnId="0" />
        <Node type="out" id="5" fnId="0" />
        <Node type="out" id="6" fnId="0" />
        <Node type="hid" id="19" fnId="3" />
      </Nodes>
      <Connections>
        <Con id="11" src="1" tgt="3" wght="-3.7446741340681911" />
        <Con id="13" src="1" tgt="5" wght="-2.1481011668220162" />
        <Con id="14" src="1" tgt="6" wght="-4.3458694545552135" />
        <Con id="16" src="2" tgt="4" wght="-3.4934200346469879" />
        <Con id="17" src="2" tgt="5" wght="-2.1376957930624485" />
        <Con id="20" src="2" tgt="19" wght="-1.063081044703722" />
        <Con id="21" src="19" tgt="6" wght="5" />
        <Con id="31" src="2" tgt="3" wght="-4.8252654587849975" />
      </Connections>
    </Network>
    <Network id="23" birthGen="2" fitness="0">
      <Nodes>
        <Node type="bias" id="0" fnId="0" />
        <Node type="in" id="1" fnId="0" />
        <Node type="in" id="2" fnId="0" />
        <Node type="out" id="3" fnId="0" />
        <Node type="out" id="4" fnId="0" />
        <Node type="out" id="5" fnId="0" />
        <Node type="out" id="6" fnId="0" />
        <Node type="hid" id="19" fnId="3" />
        <Node type="hid" id="32" fnId="3" />
      </Nodes>
      <Connections>
        <Con id="11" src="1" tgt="3" wght="-3.7446741340681911" />
        <Con id="13" src="1" tgt="5" wght="-2.1481011668220162" />
        <Con id="14" src="1" tgt="6" wght="-4.3458694545552135" />
        <Con id="16" src="2" tgt="4" wght="-3.4934200346469879" />
        <Con id="17" src="2" tgt="5" wght="-2.1376957930624485" />
        <Con id="21" src="19" tgt="6" wght="5" />
        <Con id="33" src="2" tgt="32" wght="-1.063081044703722" />
        <Con id="34" src="32" tgt="19" wght="5" />
      </Connections>
    </Network>
  </Networks>
</Root>