<?xml version="1.0" encoding="utf-8"?>
<Root>
  <ActivationFunctions>
    <Fn id="0" name="Linear" prob="0.25" />
    <Fn id="1" name="BipolarSigmoid" prob="0.25" />
    <Fn id="2" name="Gaussian" prob="0.25" />
    <Fn id="3" name="Sine" prob="0.25" />
  </ActivationFunctions>
  <Networks>
    <Network id="102" birthGen="13" fitness="0">
      <Nodes>
        <Node type="bias" id="0" fnId="0" />
        <Node type="in" id="1" fnId="0" />
        <Node type="in" id="2" fnId="0" />
        <Node type="out" id="3" fnId="0" />
        <Node type="out" id="4" fnId="0" />
        <Node type="out" id="5" fnId="0" />
        <Node type="out" id="6" fnId="0" />
        <Node type="hid" id="22" fnId="1" />
        <Node type="hid" id="39" fnId="3" />
        <Node type="hid" id="68" fnId="0" />
        <Node type="hid" id="79" fnId="1" />
        <Node type="hid" id="91" fnId="0" />
        <Node type="hid" id="133" fnId="2" />
      </Nodes>
      <Connections>
        <Con id="14" src="1" tgt="6" wght="-0.28428811952471733" />
        <Con id="16" src="2" tgt="4" wght="-0.18733625859022141" />
        <Con id="24" src="22" tgt="5" wght="2" />
        <Con id="41" src="39" tgt="3" wght="2" />
        <Con id="52" src="39" tgt="6" wght="-0.95668717287480831" />
        <Con id="69" src="2" tgt="68" wght="-0.019384671142355377" />
        <Con id="81" src="79" tgt="22" wght="2" />
        <Con id="92" src="2" tgt="91" wght="1.2371865566819906" />
        <Con id="93" src="91" tgt="79" wght="2" />
        <Con id="132" src="5" tgt="68" wght="1.6624218467622995" />
        <Con id="134" src="1" tgt="133" wght="1.492239061743021" />
        <Con id="135" src="133" tgt="39" wght="2" />
      </Connections>
    </Network>
    <Network id="116" birthGen="15" fitness="0">
      <Nodes>
        <Node type="bias" id="0" fnId="0" />
        <Node type="in" id="1" fnId="0" />
        <Node type="in" id="2" fnId="0" />
        <Node type="out" id="3" fnId="0" />
        <Node type="out" id="4" fnId="0" />
        <Node type="out" id="5" fnId="0" />
        <Node type="out" id="6" fnId="0" />
        <Node type="hid" id="22" fnId="1" />
        <Node type="hid" id="39" fnId="3" />
        <Node type="hid" id="68" fnId="0" />
        <Node type="hid" id="79" fnId="1" />
        <Node type="hid" id="91" fnId="0" />
        <Node type="hid" id="133" fnId="2" />
      </Nodes>
      <Connections>
        <Con id="14" src="1" tgt="6" wght="-0.28428811952471733" />
        <Con id="16" src="2" tgt="4" wght="0.34426491256475034" />
        <Con id="24" src="22" tgt="5" wght="2" />
        <Con id="41" src="39" tgt="3" wght="2" />
        <Con id="52" src="39" tgt="6" wght="-0.95668717287480831" />
        <Con id="69" src="2" tgt="68" wght="-0.019384671142355377" />
        <Con id="81" src="79" tgt="22" wght="2" />
        <Con id="92" src="2" tgt="91" wght="-1.8454689131502007" />
        <Con id="93" src="91" tgt="79" wght="2" />
        <Con id="132" src="5" tgt="68" wght="1.6624218467622995" />
        <Con id="134" src="1" tgt="133" wght="1.492239061743021" />
        <Con id="135" src="133" tgt="39" wght="2" />
      </Connections>
    </Network>
    <Network id="117" birthGen="15" fitness="0">
      <Nodes>
        <Node type="bias" id="0" fnId="0" />
        <Node type="in" id="1" fnId="0" />
        <Node type="in" id="2" fnId="0" />
        <Node type="out" id="3" fnId="0" />
        <Node type="out" id="4" fnId="0" />
        <Node type="out" id="5" fnId="0" />
        <Node type="out" id="6" fnId="0" />
        <Node type="hid" id="22" fnId="1" />
        <Node type="hid" id="39" fnId="3" />
        <Node type="hid" id="68" fnId="0" />
        <Node type="hid" id="79" fnId="1" />
        <Node type="hid" id="91" fnId="0" />
        <Node type="hid" id="133" fnId="2" />
      </Nodes>
      <Connections>
        <Con id="14" src="1" tgt="6" wght="-0.28428811952471733" />
        <Con id="16" src="2" tgt="4" wght="-0.18733625859022141" />
        <Con id="24" src="22" tgt="5" wght="2" />
        <Con id="41" src="39" tgt="3" wght="2" />
        <Con id="52" src="39" tgt="6" wght="-0.95668717287480831" />
        <Con id="69" src="2" tgt="68" wght="-0.019384671142355377" />
        <Con id="81" src="79" tgt="22" wght="2" />
        <Con id="92" src="2" tgt="91" wght="1.2371865566819906" />
        <Con id="93" src="91" tgt="79" wght="2" />
        <Con id="132" src="5" tgt="68" wght="1.6624218467622995" />
        <Con id="134" src="1" tgt="133" wght="1.492239061743021" />
        <Con id="135" src="133" tgt="39" wght="2" />
        <Con id="149" src="22" tgt="22" wght="-1.5040538273751736" />
      </Connections>
    </Network>
    <Network id="118" birthGen="15" fitness="0">
      <Nodes>
        <Node type="bias" id="0" fnId="0" />
        <Node type="in" id="1" fnId="0" />
        <Node type="in" id="2" fnId="0" />
        <Node type="out" id="3" fnId="0" />
        <Node type="out" id="4" fnId="0" />
        <Node type="out" id="5" fnId="0" />
        <Node type="out" id="6" fnId="0" />
        <Node type="hid" id="22" fnId="1" />
        <Node type="hid" id="39" fnId="3" />
        <Node type="hid" id="68" fnId="0" />
        <Node type="hid" id="79" fnId="1" />
        <Node type="hid" id="91" fnId="0" />
      </Nodes>
      <Connections>
        <Con id="14" src="1" tgt="6" wght="-0.28428811952471733" />
        <Con id="24" src="22" tgt="5" wght="2" />
        <Con id="40" src="1" tgt="39" wght="1.4508014044288811" />
        <Con id="41" src="39" tgt="3" wght="2" />
        <Con id="45" src="2" tgt="6" wght="-0.99155000038445" />
        <Con id="52" src="39" tgt="6" wght="-0.95668717287480831" />
        <Con id="69" src="2" tgt="68" wght="-0.019384671142355377" />
        <Con id="81" src="79" tgt="22" wght="2" />
        <Con id="92" src="2" tgt="91" wght="1.2371865566819906" />
        <Con id="93" src="91" tgt="79" wght="2" />
        <Con id="132" src="5" tgt="68" wght="1.6624218467622995" />
      </Connections>
    </Network>
    <Network id="119" birthGen="15" fitness="0">
      <Nodes>
        <Node type="bias" id="0" fnId="0" />
        <Node type="in" id="1" fnId="0" />
        <Node type="in" id="2" fnId="0" />
        <Node type="out" id="3" fnId="0" />
        <Node type="out" id="4" fnId="0" />
        <Node type="out" id="5" fnId="0" />
        <Node type="out" id="6" fnId="0" />
        <Node type="hid" id="22" fnId="1" />
        <Node type="hid" id="39" fnId="3" />
        <Node type="hid" id="68" fnId="0" />
        <Node type="hid" id="79" fnId="1" />
        <Node type="hid" id="91" fnId="0" />
      </Nodes>
      <Connections>
        <Con id="14" src="1" tgt="6" wght="-0.28428811952471733" />
        <Con id="24" src="22" tgt="5" wght="2" />
        <Con id="40" src="1" tgt="39" wght="1.492239061743021" />
        <Con id="41" src="39" tgt="3" wght="2" />
        <Con id="45" src="2" tgt="6" wght="-0.99155000038445" />
        <Con id="52" src="39" tgt="6" wght="-0.95668717287480831" />
        <Con id="69" src="2" tgt="68" wght="-0.019384671142355377" />
        <Con id="81" src="79" tgt="22" wght="2" />
        <Con id="92" src="2" tgt="91" wght="1.2371865566819906" />
        <Con id="93" src="91" tgt="79" wght="2" />
        <Con id="132" src="5" tgt="68" wght="1.6624218467622995" />
        <Con id="150" src="79" tgt="6" wght="-1.6308254711329937" />
      </Connections>
    </Network>
    <Network id="120" birthGen="15" fitness="0">
      <Nodes>
        <Node type="bias" id="0" fnId="0" />
        <Node type="in" id="1" fnId="0" />
        <Node type="in" id="2" fnId="0" />
        <Node type="out" id="3" fnId="0" />
        <Node type="out" id="4" fnId="0" />
        <Node type="out" id="5" fnId="0" />
        <Node type="out" id="6" fnId="0" />
        <Node type="hid" id="22" fnId="1" />
        <Node type="hid" id="39" fnId="3" />
        <Node type="hid" id="68" fnId="0" />
        <Node type="hid" id="79" fnId="1" />
        <Node type="hid" id="91" fnId="0" />
        <Node type="hid" id="151" fnId="3" />
      </Nodes>
      <Connections>
        <Con id="14" src="1" tgt="6" wght="-0.28428811952471733" />
        <Con id="24" src="22" tgt="5" wght="2" />
        <Con id="40" src="1" tgt="39" wght="1.492239061743021" />
        <Con id="41" src="39" tgt="3" wght="2" />
        <Con id="45" src="2" tgt="6" wght="-0.99155000038445" />
        <Con id="52" src="39" tgt="6" wght="-0.95668717287480831" />
        <Con id="69" src="2" tgt="68" wght="-0.019384671142355377" />
        <Con id="81" src="79" tgt="22" wght="2" />
        <Con id="92" src="2" tgt="91" wght="1.2371865566819906" />
        <Con id="132" src="5" tgt="68" wght="1.6624218467622995" />
        <Con id="152" src="91" tgt="151" wght="2" />
        <Con id="153" src="151" tgt="79" wght="2" />
      </Connections>
    </Network>
    <Network id="121" birthGen="15" fitness="0">
      <Nodes>
        <Node type="bias" id="0" fnId="0" />
        <Node type="in" id="1" fnId="0" />
        <Node type="in" id="2" fnId="0" />
        <Node type="out" id="3" fnId="0" />
        <Node type="out" id="4" fnId="0" />
        <Node type="out" id="5" fnId="0" />
        <Node type="out" id="6" fnId="0" />
        <Node type="hid" id="22" fnId="1" />
        <Node type="hid" id="39" fnId="3" />
        <Node type="hid" id="68" fnId="0" />
        <Node type="hid" id="79" fnId="1" />
        <Node type="hid" id="91" fnId="0" />
        <Node type="hid" id="143" fnId="3" />
      </Nodes>
      <Connections>
        <Con id="14" src="1" tgt="6" wght="-0.28428811952471733" />
        <Con id="40" src="1" tgt="39" wght="1.492239061743021" />
        <Con id="41" src="39" tgt="3" wght="2" />
        <Con id="52" src="39" tgt="6" wght="-0.95668717287480831" />
        <Con id="69" src="2" tgt="68" wght="-0.019384671142355377" />
        <Con id="81" src="79" tgt="22" wght="2" />
        <Con id="92" src="2" tgt="91" wght="1.2371865566819906" />
        <Con id="93" src="91" tgt="79" wght="2" />
        <Con id="144" src="5" tgt="143" wght="1.6624218467622995" />
        <Con id="145" src="143" tgt="68" wght="2" />
      </Connections>
    </Network>
    <Network id="122" birthGen="15" fitness="0">
      <Nodes>
        <Node type="bias" id="0" fnId="0" />
        <Node type="in" id="1" fnId="0" />
        <Node type="in" id="2" fnId="0" />
        <Node type="out" id="3" fnId="0" />
        <Node type="out" id="4" fnId="0" />
        <Node type="out" id="5" fnId="0" />
        <Node type="out" id="6" fnId="0" />
        <Node type="hid" id="22" fnId="1" />
        <Node type="hid" id="39" fnId="3" />
        <Node type="hid" id="68" fnId="0" />
        <Node type="hid" id="79" fnId="1" />
        <Node type="hid" id="91" fnId="0" />
        <Node type="hid" id="143" fnId="3" />
        <Node type="hid" id="154" fnId="3" />
      </Nodes>
      <Connections>
        <Con id="14" src="1" tgt="6" wght="-0.28428811952471733" />
        <Con id="40" src="1" tgt="39" wght="1.492239061743021" />
        <Con id="41" src="39" tgt="3" wght="2" />
        <Con id="52" src="39" tgt="6" wght="-0.95668717287480831" />
        <Con id="69" src="2" tgt="68" wght="-0.019384671142355377" />
        <Con id="81" src="79" tgt="22" wght="2" />
        <Con id="92" src="2" tgt="91" wght="1.2371865566819906" />
        <Con id="93" src="91" tgt="79" wght="2" />
        <Con id="144" src="5" tgt="143" wght="1.6624218467622995" />
        <Con id="145" src="143" tgt="68" wght="2" />
        <Con id="155" src="22" tgt="154" wght="2" />
        <Con id="156" src="154" tgt="5" wght="2" />
      </Connections>
    </Network>
    <Network id="123" birthGen="15" fitness="0">
      <Nodes>
        <Node type="bias" id="0" fnId="0" />
        <Node type="in" id="1" fnId="0" />
        <Node type="in" id="2" fnId="0" />
        <Node type="out" id="3" fnId="0" />
        <Node type="out" id="4" fnId="0" />
        <Node type="out" id="5" fnId="0" />
        <Node type="out" id="6" fnId="0" />
        <Node type="hid" id="22" fnId="1" />
        <Node type="hid" id="39" fnId="3" />
        <Node type="hid" id="68" fnId="0" />
        <Node type="hid" id="79" fnId="1" />
        <Node type="hid" id="91" fnId="0" />
        <Node type="hid" id="143" fnId="3" />
      </Nodes>
      <Connections>
        <Con id="14" src="1" tgt="6" wght="-0.28428811952471733" />
        <Con id="24" src="22" tgt="5" wght="2" />
        <Con id="40" src="1" tgt="39" wght="1.492239061743021" />
        <Con id="41" src="39" tgt="3" wght="2" />
        <Con id="52" src="39" tgt="6" wght="-0.95668717287480831" />
        <Con id="69" src="2" tgt="68" wght="-0.019384671142355377" />
        <Con id="81" src="79" tgt="22" wght="2" />
        <Con id="92" src="2" tgt="91" wght="1.2371865566819906" />
        <Con id="93" src="91" tgt="79" wght="2" />
        <Con id="144" src="5" tgt="143" wght="1.6624218467622995" />
        <Con id="145" src="143" tgt="68" wght="2" />
        <Con id="157" src="4" tgt="22" wght="1.4906573183834553" />
      </Connections>
    </Network>
  </Networks>
</Root>