<?xml version="1.0" encoding="utf-8"?>
<Root>
  <ActivationFunctions>
    <Fn id="0" name="Linear" prob="0.25" />
    <Fn id="1" name="BipolarSigmoid" prob="0.25" />
    <Fn id="2" name="Gaussian" prob="0.25" />
    <Fn id="3" name="Sine" prob="0.25" />
  </ActivationFunctions>
  <Networks>
    <Network id="12" birthGen="1" fitness="0">
      <Nodes>
        <Node type="bias" id="0" fnId="0" />
        <Node type="in" id="1" fnId="0" />
        <Node type="in" id="2" fnId="0" />
        <Node type="out" id="3" fnId="0" />
        <Node type="out" id="4" fnId="0" />
        <Node type="out" id="5" fnId="0" />
        <Node type="out" id="6" fnId="0" />
      </Nodes>
      <Connections>
        <Con id="7" src="0" tgt="3" wght="-0.72637438401579857" />
        <Con id="12" src="1" tgt="4" wght="-0.26932462118566036" />
        <Con id="13" src="1" tgt="5" wght="0.91006253287196159" />
        <Con id="16" src="2" tgt="4" wght="0.18466517515480518" />
        <Con id="17" src="2" tgt="5" wght="1.0322900656610727" />
        <Con id="22" src="4" tgt="5" wght="-1.4534233622252941" />
      </Connections>
    </Network>
    <Network id="16" birthGen="2" fitness="0">
      <Nodes>
        <Node type="bias" id="0" fnId="0" />
        <Node type="in" id="1" fnId="0" />
        <Node type="in" id="2" fnId="0" />
        <Node type="out" id="3" fnId="0" />
        <Node type="out" id="4" fnId="0" />
        <Node type="out" id="5" fnId="0" />
        <Node type="out" id="6" fnId="0" />
      </Nodes>
      <Connections>
        <Con id="12" src="1" tgt="4" wght="-0.26932462118566036" />
        <Con id="13" src="1" tgt="5" wght="0.91006253287196159" />
        <Con id="16" src="2" tgt="4" wght="0.18466517515480518" />
        <Con id="17" src="2" tgt="5" wght="1.0322900656610727" />
        <Con id="22" src="4" tgt="5" wght="-1.4534233622252941" />
      </Connections>
    </Network>
    <Network id="17" birthGen="2" fitness="0">
      <Nodes>
        <Node type="bias" id="0" fnId="0" />
        <Node type="in" id="1" fnId="0" />
        <Node type="in" id="2" fnId="0" />
        <Node type="out" id="3" fnId="0" />
        <Node type="out" id="4" fnId="0" />
        <Node type="out" id="5" fnId="0" />
        <Node type="out" id="6" fnId="0" />
      </Nodes>
      <Connections>
        <Con id="7" src="0" tgt="3" wght="-0.72637438401579857" />
        <Con id="12" src="1" tgt="4" wght="-0.26932462118566036" />
        <Con id="13" src="1" tgt="5" wght="0.91006253287196159" />
        <Con id="16" src="2" tgt="4" wght="0.18466517515480518" />
        <Con id="17" src="2" tgt="5" wght="1.0322900656610727" />
        <Con id="22" src="4" tgt="5" wght="-1.0602102768420008" />
      </Connections>
    </Network>
    <Network id="18" birthGen="2" fitness="10">
      <Nodes>
        <Node type="bias" id="0" fnId="0" />
        <Node type="in" id="1" fnId="0" />
        <Node type="in" id="2" fnId="0" />
        <Node type="out" id="3" fnId="0" />
        <Node type="out" id="4" fnId="0" />
        <Node type="out" id="5" fnId="0" />
        <Node type="out" id="6" fnId="0" />
      </Nodes>
      <Connections>
        <Con id="12" src="1" tgt="4" wght="-0.26932462118566036" />
        <Con id="13" src="1" tgt="5" wght="0.91006253287196159" />
        <Con id="16" src="2" tgt="4" wght="0.18466517515480518" />
        <Con id="17" src="2" tgt="5" wght="1.0322900656610727" />
        <Con id="22" src="4" tgt="5" wght="-1.4534233622252941" />
      </Connections>
    </Network>
    <Network id="19" birthGen="2" fitness="0">
      <Nodes>
        <Node type="bias" id="0" fnId="0" />
        <Node type="in" id="1" fnId="0" />
        <Node type="in" id="2" fnId="0" />
        <Node type="out" id="3" fnId="0" />
        <Node type="out" id="4" fnId="0" />
        <Node type="out" id="5" fnId="0" />
        <Node type="out" id="6" fnId="0" />
        <Node type="hid" id="25" fnId="1" />
      </Nodes>
      <Connections>
        <Con id="7" src="0" tgt="3" wght="-0.72637438401579857" />
        <Con id="13" src="1" tgt="5" wght="0.91006253287196159" />
        <Con id="16" src="2" tgt="4" wght="0.18466517515480518" />
        <Con id="17" src="2" tgt="5" wght="1.0322900656610727" />
        <Con id="22" src="4" tgt="5" wght="-1.4534233622252941" />
        <Con id="26" src="1" tgt="25" wght="-0.26932462118566036" />
        <Con id="27" src="25" tgt="4" wght="2" />
      </Connections>
    </Network>
    <Network id="20" birthGen="2" fitness="0">
      <Nodes>
        <Node type="bias" id="0" fnId="0" />
        <Node type="in" id="1" fnId="0" />
        <Node type="in" id="2" fnId="0" />
        <Node type="out" id="3" fnId="0" />
        <Node type="out" id="4" fnId="0" />
        <Node type="out" id="5" fnId="0" />
        <Node type="out" id="6" fnId="0" />
        <Node type="hid" id="28" fnId="2" />
      </Nodes>
      <Connections>
        <Con id="7" src="0" tgt="3" wght="-0.72637438401579857" />
        <Con id="12" src="1" tgt="4" wght="-0.26932462118566036" />
        <Con id="16" src="2" tgt="4" wght="0.18466517515480518" />
        <Con id="17" src="2" tgt="5" wght="1.0322900656610727" />
        <Con id="22" src="4" tgt="5" wght="-1.4534233622252941" />
        <Con id="29" src="1" tgt="28" wght="0.91006253287196159" />
        <Con id="30" src="28" tgt="5" wght="2" />
      </Connections>
    </Network>
    <Network id="21" birthGen="2" fitness="0">
      <Nodes>
        <Node type="bias" id="0" fnId="0" />
        <Node type="in" id="1" fnId="0" />
        <Node type="in" id="2" fnId="0" />
        <Node type="out" id="3" fnId="0" />
        <Node type="out" id="4" fnId="0" />
        <Node type="out" id="5" fnId="0" />
        <Node type="out" id="6" fnId="0" />
        <Node type="hid" id="31" fnId="2" />
      </Nodes>
      <Connections>
        <Con id="12" src="1" tgt="4" wght="-0.26932462118566036" />
        <Con id="13" src="1" tgt="5" wght="0.91006253287196159" />
        <Con id="16" src="2" tgt="4" wght="0.18466517515480518" />
        <Con id="17" src="2" tgt="5" wght="1.0322900656610727" />
        <Con id="22" src="4" tgt="5" wght="-1.4534233622252941" />
        <Con id="32" src="0" tgt="31" wght="-0.72637438401579857" />
        <Con id="33" src="31" tgt="3" wght="2" />
      </Connections>
    </Network>
    <Network id="22" birthGen="2" fitness="0">
      <Nodes>
        <Node type="bias" id="0" fnId="0" />
        <Node type="in" id="1" fnId="0" />
        <Node type="in" id="2" fnId="0" />
        <Node type="out" id="3" fnId="0" />
        <Node type="out" id="4" fnId="0" />
        <Node type="out" id="5" fnId="0" />
        <Node type="out" id="6" fnId="0" />
        <Node type="hid" id="34" fnId="0" />
      </Nodes>
      <Connections>
        <Con id="7" src="0" tgt="3" wght="-0.72637438401579857" />
        <Con id="13" src="1" tgt="5" wght="0.91006253287196159" />
        <Con id="16" src="2" tgt="4" wght="0.18466517515480518" />
        <Con id="17" src="2" tgt="5" wght="1.0322900656610727" />
        <Con id="22" src="4" tgt="5" wght="-1.4534233622252941" />
        <Con id="35" src="1" tgt="34" wght="-0.26932462118566036" />
        <Con id="36" src="34" tgt="4" wght="2" />
      </Connections>
    </Network>
    <Network id="23" birthGen="2" fitness="0">
      <Nodes>
        <Node type="bias" id="0" fnId="0" />
        <Node type="in" id="1" fnId="0" />
        <Node type="in" id="2" fnId="0" />
        <Node type="out" id="3" fnId="0" />
        <Node type="out" id="4" fnId="0" />
        <Node type="out" id="5" fnId="0" />
        <Node type="out" id="6" fnId="0" />
        <Node type="hid" id="37" fnId="1" />
      </Nodes>
      <Connections>
        <Con id="7" src="0" tgt="3" wght="-0.72637438401579857" />
        <Con id="12" src="1" tgt="4" wght="-0.26932462118566036" />
        <Con id="13" src="1" tgt="5" wght="0.91006253287196159" />
        <Con id="16" src="2" tgt="4" wght="0.18466517515480518" />
        <Con id="22" src="4" tgt="5" wght="-1.4534233622252941" />
        <Con id="38" src="2" tgt="37" wght="1.0322900656610727" />
        <Con id="39" src="37" tgt="5" wght="2" />
      </Connections>
    </Network>
  </Networks>
</Root>